digraph Tree {
node [shape=box, fontname="helvetica"] ;
edge [fontname="helvetica"] ;
rankdir=LR ;
0 [label="new_user <= 0.5\ngini = 0.374\nsamples = 100.0%\nvalue = [0.751, 0.249]"] ;
1 [label="age <= 29.5\ngini = 0.492\nsamples = 31.4%\nvalue = [0.563, 0.437]"] ;
0 -> 1 [labeldistance=2.5, labelangle=-45, headlabel="True"] ;
2 [label="gini = 0.498\nsamples = 15.5%\nvalue = [0.467, 0.533]"] ;
1 -> 2 ;
3 [label="gini = 0.424\nsamples = 15.9%\nvalue = [0.695, 0.305]"] ;
1 -> 3 ;
4 [label="age <= 26.5\ngini = 0.216\nsamples = 68.6%\nvalue = [0.877, 0.123]"] ;
0 -> 4 [labeldistance=2.5, labelangle=45, headlabel="False"] ;
5 [label="gini = 0.303\nsamples = 23.9%\nvalue = [0.814, 0.186]"] ;
4 -> 5 ;
6 [label="gini = 0.158\nsamples = 44.7%\nvalue = [0.914, 0.086]"] ;
4 -> 6 ;
}